tree
version=v4
num_class=1
num_tree_per_iteration=1
label_index=0
max_feature_idx=95
objective=binary sigmoid:1
feature_names=Column_0 Column_1 Column_2 Column_3 Column_4 Column_5 Column_6 Column_7 Column_8 Column_9 Column_10 Column_11 Column_12 Column_13 Column_14 Column_15 Column_16 Column_17 Column_18 Column_19 Column_20 Column_21 Column_22 Column_23 Column_24 Column_25 Column_26 Column_27 Column_28 Column_29 Column_30 Column_31 Column_32 Column_33 Column_34 Column_35 Column_36 Column_37 Column_38 Column_39 Column_40 Column_41 Column_42 Column_43 Column_44 Column_45 Column_46 Column_47 Column_48 Column_49 Column_50 Column_51 Column_52 Column_53 Column_54 Column_55 Column_56 Column_57 Column_58 Column_59 Column_60 Column_61 Column_62 Column_63 Column_64 Column_65 Column_66 Column_67 Column_68 Column_69 Column_70 Column_71 Column_72 Column_73 Column_74 Column_75 Column_76 Column_77 Column_78 Column_79 Column_80 Column_81 Column_82 Column_83 Column_84 Column_85 Column_86 Column_87 Column_88 Column_89 Column_90 Column_91 Column_92 Column_93 Column_94 Column_95
feature_infos=-1:1044:1301:1418:1463:875:1438:1315:1460:1278:1433:1465:1454:1411:820:1436:881:1300:877:1246:1316:1394:75:675:1182:1437:233:362:1435:1309:1402:1449:414:1423:1462:228:467:758:1307:1358:1416:178:364:529:796:882:1145:1439:1442:103:134:205:225:422:494:738:1009:1080:1196:1273:1319:1422:1424:1429 -1:43:234:230:20:78:152:395:67:375:364:70:289:143:66:194:65:337:237:270:124:236:326:274:435:36:556:244:0:53:179 -1:188:119:292:182:193:95:244:87:149:189:11:202:293:225:127:270:117:136:145:283:21:51:91:235:55:162:264:74:92:93:57:30:56:58:211:159:165:290:298:35:110:215:234:289:299 -1:551:633:835:237:208:229:875:594:445:68:234:497:420:454:931:159:184:280:264:380:207:759:266:797:851:123:430:894:8:41:74:103:864:934:165:370:636:873:17:69:85:226:482:534:927:97:98:191:198:382:432:442:846:880:917:928:7:10:193:277:285:379:447:558:611:622:686:767:788:871:905 -1:123:454:159:432:193:722:851:855:759:423:370:835:382:941:184:217:264:280:594:846:103:229:348:633:880:68:237:71:198:871:826:917:35:208:443:551:864:894:8:262:615:659:662:907:15:74:233:381:410:420:636:767:69:207:401:849:905:86:281:497:558:587:697:797:799:873:875:877:928 -1:633:103:454:907:851:894:208:827:24:864:86:123:826:193:565:722:880:207:280:74:264:382:767:797:237:432:443:551:159:433:659:699:855:124:197:788:824:189:221:233:234:594:703:875:217:381:686:759:810:892:28:165:198:262:285:367:380:482:842:871:933:934:157:275:359:363:409:423:466:471:486:636:667:846 -1:633:894:165:237:855:788:382:454:851:207:24:622:662:864:907:193:767:123:432:667:689:427:591:594:873:74:381:827:160:266:348:359:636:928:935:941:17:157:208:264:270:275:413:433:551:555:637:686:722 -1:18:14:17:2:5:3:8:15:10:16:1:11:4:9:6:19:13 -1:1044:1278:875:1301:1463:1453:1418:1182:1465:1454:1433:1411:1315:1435:820:1316:1438:414:1246:1462:1437:233:494:75:377:877:1043:670:362:1402:1403:1423:1449:1460:245:373:616:660:869:881:1414:104:132:223:417:525:536:613:738:1307:1392:1398 -1:43:20:364:395:152:78:230:234:557:375:67:194:66:289:124:143:213:435:65:386:236:70:237:0:326:382:42:81:255:270:398:433:556 -1:188:119:182:189:292:193:298:91:149:87:11:95:202:264:57:127:145:136:74:21:35:117:213:235:289:34:55:93:153:277:29:51:72:208:225:39:56:61:115:211:244:255:284 -1:237:445:835:551:280:68:229:633:497:875:420:264:851:454:234:380:894:69:103:429:594:698:759:636:873:159:184:433:379:410:846:788:591:941:198:208:709:757:934:41:86:233:278:348:703:767:907:85:191:376:430:442:558:645:686:708:797:799:928 -1:348:454:159:382:633:851:123:408:722:941:193:445:846:855:880:432:68:894:928:86:157:229:237:264:280:24:423:551:636:8:71:103:370:420:826:875:207:233:266:864:594:662:907:381:558:611:686:198:226:380:443:659:699:788:842:85:184:297:421:478:673:694:797:810:827:936 -1:280:633:103:594:894:662:722:788:855:24:382:454:941:184:207:565:864:193:408:851:907:208:237:432:409:880:123:264:159:8:277:443:797:827:842:189:348:428:433:645:699:759:767:69:74:221:229:591:636:873:905:380:445:659:826:41:262:371:401:551:587:686:846:875:933:935 -1:633:894:788:855:237:280:165:907:264:382:454:594:432:864:851:875:123:478:767:374:892:933:103:159:197:210:667:880:24:99:189:266:285:345:401:408:615:622:636:659:711:873:86:233:376:381:410:421:639:730:871:920 -1:18:3:2:14:5:17:10:15:16:1:8:19:9:11:4:7:12 -1:1301:1418:1463:1044:1182:875:1454:1411:1453:881:1435:233:1433:467:1278:1423:1246:1402:1462:104:1300:1315:1403:672:871:651:758:877:1250:1307:1316:1436:227:228:767:820:1196:1231:69:214:373:534:616:1000:1379:1394:1409:1414:1448:1450:1465 -1:152:20:43:234:67:66:194:395:375:78:289:435:230:557:70:65:364:408:237:53:143:236:11:556:0:115:124:255:99:179:274:314:326:405 -1:292:188:119:182:91:149:11:298:225:193:264:87:58:189:51:153:136:34:95:117:72:202:231:56:127:145:162:223:293:57:147:190:246:29:43:80:173:208:240:282:283:289:296 -1:835:551:633:237:445:280:207:68:420:941:193:497:873:851:264:165:382:429:226:454:788:159:208:233:709:842:123:379:430:686:931:935:191:284:558:594:641:759:875:81:85:423:694:797:927:24:71:188:218:229:249:380:481:501:544:579:656:826 -1:123:722:159:348:907:454:941:24:835:636:826:198:759:233:408:633:184:432:237:875:894:68:193:594:851:86:264:382:420:103:380:788:74:218:226:280:370:659:686:703:221:383:445:551:699:928:473:590:662:917:144:165:188:208:241:374:466:534:667:824:864:871:873:880:933 -1:24:123:633:280:722:264:851:207:348:875:454:699:835:159:193:382:662:907:432:565:208:420:759:894:237:401:551:636:824:880:184:303:443:810:855:941:103:218:380:409:594:645:703:788:842:367:826:864:85:234:429:473:587:601:607:638:935:376:408:421:548:767:892:928:936 -1:633:165:24:788:237:432:907:594:894:855:622:767:401:917:280:851:928:124:408:598:218:382:473:875:99:454:208:371:445:558:636:842:864:890:933:103:172:197:264:442:551:94:159:184:221:262:443:448:662:722:774:826:880:927 -1:18:2:3:17:5:14:16:8:10:15:19:4:1:9:12:13:7 -1:1044:1182:1418:1453:1301:1454:881:1463:1315:1300:362:820:875:882:1307:1423:1437:1447:1414:1435:467:1411:1433:233:758:1403:1250:1316:1436:1402:1438:153:205:675:96:638:649:1460:69:178:261:335:377:551:651:1186:1419:1449:1452:1465 -1:20:234:152:43:364:395:557:375:65:194:143:124:66:78:67:70:230:237:236:289:99:270:435:274:36:116:283:0:203:326:343:438:556 -1:119:188:292:91:298:149:182:225:95:55:202:193:21:56:264:34:58:162:11:87:51:99:127:259:145:153:293:43:117:83:102:140:159:244:2:74:93:128:129:166:213:223:296 -1:445:237:633:264:941:835:208:454:864:931:68:191:280:370:159:193:348:551:797:184:207:218:501:722:826:380:591:592:851:927:429:497:594:709:71:226:565:669:686:873:875:382:431:432:455:636:788:24:97:145:359:401:430:467:473:699:759:767:810:846:907 -1:348:454:123:408:855:759:207:208:423:722:184:380:875:551:826:264:633:941:443:445:810:659:907:159:193:198:234:591:788:851:24:237:432:835:103:420:686:894:280:382:473:594:669:86:266:401:558:587:611:636:662:767:864:77:95:218:229:455:595:610:641:683:703:708:917:920:929 -1:594:907:280:759:207:401:237:24:633:264:103:157:667:842:788:855:123:864:234:686:432:551:851:381:722:826:202:208:565:873:880:894:382:408:703:817:74:159:233:699:221:370:659:917:941:68:420:928:936:184:443:455:615:875:933:127:256:346:359:445:454:464:652:709:887 -1:633:237:788:165:894:594:454:864:907:703:280:123:880:208:659:767:207:759:810:826:855:935:264:370:382:221:443:851:941:24:184:218:234:401:432:473:574:592:797:931:103:160:193:198:204:381:423:478:558:662:699:815:842:875 -1:3:2:14:17:5:18:8:16:10:15:4:1:12:9:6:11:13:19 -1:1044:875:1182:1454:881:1411:1418:1301:1463:1435:1300:820:670:1433:882:1453:1307:414:1423:1315:1414:1465:1436:69:233:913:1429:1434:1438:1455:223:467:758:905:1410:1462:180:228:230:361:362:392:954:990:1047:1070:1242:1250:1278:1306:1409:1439 -1:20:152:375:234:78:395:43:67:194:230:70:65:435:364:557:124:0:99:236:143:274:75:179:66:237:289:37:386:389 -1:119:188:182:292:91:149:225:11:193:264:298:51:202:74:87:56:57:255:95:127:187:293:58:80:84:189:211:265:267:276:277:2:23:55:117:130:134:279:285:289:302 -1:264:633:68:237:941:445:420:551:835:931:159:380:207:810:894:454:497:191:280:410:851:348:759:928:123:788:74:193:208:455:864:875:103:198:309:359:429:558:686:797:873:917:229:234:430:709:826:855:927:12:24:172:184:197:247:370:427:432:447:475:499:669:699:733:790:827 -1:348:123:454:851:264:759:445:594:207:382:636:551:941:266:722:432:633:855:686:826:880:184:8:875:208:827:928:159:443:697:846:85:401:430:615:193:280:907:15:77:103:218:233:420:423:894:86:191:224:478:797:24:68:188:381:473:662:681:864:871:922:927 -1:237:633:207:401:280:851:855:662:454:826:24:907:159:594:722:788:759:824:842:382:123:659:432:894:208:565:699:873:551:864:880:933:103:218:229:428:936:127:234:381:467:797:941:68:264:380:443:475:767:835:875:892:21:74:151:184:222:348:359:427:430:473:636:645:667:686:810:813:827:947 -1:633:237:594:788:907:855:432:864:165:851:894:278:454:221:703:722:430:622:826:68:193:218:824:427:810:159:659:303:304:382:686:99:103:226:264:269:348:380:873:880:933:254:401:443:669:747:797:801:935:947 -1:17:3:2:18:14:5:10:1:8:16:12:19:9:4:7:13:6:15 -1:820:1418:1301:1454:881:1463:875:882:758:1044:1182:1435:1453:1411:1433:1307:1278:1316:877:233:1315:1437:878:1442:246:1135:1300:1422:1455:290:1246:1447:227:334:364:377:494:643:1102:1292:1319:1403:1409:134:148:177:373:388:414:433:467:536:833:916:1343:1402:1429:1460:1461:1462 -1:234:78:20:43:152:364:395:66:194:65:230:289:67:557:270:435:375:143:70:237:75:124:0:556:561:37:115:326 -1:188:202:182:119:292:149:225:91:264:298:11:117:87:189:56:193:145:25:21:95:127:255:51:296:54:162:234:30:34:102:136:159:252:35:150:213:244:246:290:295:300:36:57:58:72:178:270:276:277 -1:633:551:445:797:835:237:68:873:280:615:810:191:207:71:497:380:429:636:894:123:226:432:607:686:880:233:420:430:759:934:159:184:208:221:285:303:558:617:851:875:941:69:74:198:410:413:616:708:722:933:189:218:229:234:249:262:359:379:433:501:611:698:709:864:907:909:927:931:936 -1:759:123:722:851:184:348:432:659:941:408:633:420:636:826:207:454:551:864:855:159:280:686:122:894:24:157:875:221:193:237:234:238:262:589:594:810:934:48:68:208:264:610:615:788:797:86:113:367:412:645:907:11:127:151:165:217:218:233:285:309:443:565:587:699:742:824:873:936 -1:633:759:855:659:280:880:24:432:851:184:207:875:907:382:686:864:824:894:208:123:842:788:454:615:827:237:662:348:722:159:262:264:401:565:10:210:445:591:810:941:193:303:550:594:756:826:103:229:420:703:124:164:168:233:370:413:428:431:485:497:636:710:753:878:912 -1:633:788:907:767:855:797:165:810:894:238:123:262:659:851:880:237:454:892:432:207:221:280:636:824:159:370:380:827:908:24:208:303:622:727:864:936:122:160:218:264:348:367:382:401:420:423:565:594:686:812:842:872:184:193:353:376:473:551:662:722:724:759:817:931 -1:18:3:2:17:5:8:14:16:15:10:1:4:19:6:13:9:11:7 -1:1044:1301:1418:1463:875:1438:1315:1460:1278:1433:1465:1454:1411:820:1436:881:1300:877:1246:1316:1394:75:675:1182:1437:233:362:1435:1309:1402:1449:414:1423:1462:467:758:1307:1358:1416:178:228:364:529:796:882:1145:1422:1439:1442:103:134:205:225:422:494:738:1009:1080:1196:1273:1319:1424:1429 -1:43:234:230:20:78:152:395:67:375:364:70:289:143:66:194:65:337:237:270:124:236:326:274:435:36:556:244:0:53:179 -1:188:119:292:182:193:95:244:87:149:189:11:202:293:225:127:270:117:136:145:283:21:91:235:51:55:162:264:74:92:93:57:30:56:58:211:159:165:290:298:35:110:215:234:289:299 -1:551:633:835:237:208:229:875:594:445:68:234:497:420:454:931:159:184:280:264:380:207:759:266:797:851:123:430:894:8:41:74:103:864:934:165:370:636:873:17:69:226:482:534:927:85:97:98:191:198:285:382:432:442:846:880:917:928:7:10:193:277:379:447:558:611:622:686:767:788:871:905 -1:123:454:159:432:193:722:851:855:759:423:370:835:382:941:184:217:264:280:594:846:103:229:348:633:880:68:237:71:198:871:826:917:35:208:443:551:864:894:8:262:615:659:662:907:15:74:233:381:410:420:636:767:69:207:401:849:905:86:281:497:558:587:697:797:799:873:875:877:928 -1:633:103:454:907:851:894:208:827:24:864:86:123:826:193:565:722:880:207:280:74:264:382:767:797:237:432:443:551:159:433:659:699:855:197:221:788:824:124:189:233:234:594:703:875:217:381:686:759:810:892:28:165:198:262:285:367:380:482:842:871:933:934:157:275:359:363:409:423:466:471:486:636:667:846 -1:633:894:165:237:855:788:382:454:851:207:24:622:662:864:907:193:767:123:432:667:689:427:591:594:873:74:381:827:160:266:348:359:636:928:935:941:17:157:208:264:270:275:413:433:551:555:637:686:722 -1:18:14:17:2:5:3:8:15:10:16:1:11:4:9:6:19:13 -1:1044:1278:875:1301:1463:1453:1418:1182:1465:1454:1433:1411:1315:1435:820:1316:1438:414:1246:1462:1437:233:494:75:377:877:1043:670:362:1402:1403:1423:1449:1460:245:373:616:660:869:881:1414:104:132:223:417:525:536:613:1307:1392:1398 -1:43:20:364:395:78:152:230:234:557:375:67:194:66:289:124:143:213:435:65:386:236:70:237:0:326:382:42:81:255:270:398:433:556 -1:188:119:182:189:292:193:298:91:149:87:11:95:202:264:57:127:145:136:74:21:35:117:213:235:289:34:55:93:153:277:29:51:72:208:225:39:56:61:115:244:255:284 -1:237:445:835:551:280:68:229:633:497:875:420:264:851:454:234:380:894:69:103:429:594:698:759:636:873:159:184:433:379:410:846:788:591:941:198:709:757:934:41:86:208:233:278:348:703:767:907:85:191:376:430:442:558:645:686:708:797:799:928 -1:348:454:159:382:633:851:123:408:722:941:193:445:846:855:880:432:68:894:928:24:86:157:229:237:264:280:423:551:636:8:71:103:370:420:826:875:207:233:266:864:594:662:907:381:558:611:686:198:226:380:443:659:699:788:842:85:184:297:421:478:673:694:797:810:827:936 -1:280:633:103:594:894:662:722:788:855:24:382:454:941:184:207:565:864:907:193:408:851:208:237:432:409:880:123:264:159:8:277:797:827:443:842:189:348:428:433:645:699:759:767:69:74:221:229:591:636:873:905:380:445:659:826:41:262:371:401:551:587:686:846:875:933:935 -1:633:894:788:855:237:280:165:907:264:382:454:594:432:864:851:875:123:478:767:374:892:933:103:159:197:210:667:880:24:99:189:266:285:345:401:408:615:622:636:659:711:873:86:233:376:381:410:421:639:730:871:920 -1:18:3:2:14:5:17:10:15:16:1:8:19:9:11:4:7:12 -1:1301:1418:1463:1044:1182:875:1454:1411:1453:881:1435:233:1433:467:1278:1423:1246:1402:1462:104:1300:1315:1403:672:871:877:651:758:1250:1307:1316:1436:227:228:767:820:1196:1231:69:214:373:534:616:1000:1379:1394:1409:1414:1448:1450:1465 -1:152:20:43:234:67:66:194:395:375:78:289:435:230:557:70:65:364:408:237:53:143:236:11:556:0:115:124:255:99:179:274:314:326:405 -1:292:188:119:182:91:149:11:298:225:193:264:87:58:189:51:153:136:34:95:117:72:202:231:56:127:145:162:223:293:57:147:190:246:29:43:80:173:208:240:282:283:289:296 -1:835:551:633:237:445:280:207:68:420:941:193:497:873:851:264:165:382:429:226:788:159:208:233:454:709:842:123:379:430:686:931:935:191:284:558:594:641:759:875:81:85:423:694:797:927:24:71:188:218:229:249:380:481:501:544:579:656:826 -1:123:722:159:348:907:454:941:24:835:636:826:198:759:233:408:633:184:432:237:875:894:68:193:594:851:86:264:382:420:103:380:788:74:218:226:280:370:659:703:221:383:445:551:686:699:928:473:590:662:917:144:165:188:208:241:374:466:534:667:824:864:871:873:880:933 -1:24:123:633:280:722:264:851:207:348:875:454:699:835:159:193:382:662:907:432:565:208:420:759:894:237:401:880:551:636:824:184:303:443:810:855:941:103:218:380:409:594:645:703:788:842:367:826:85:234:429:473:587:601:607:638:864:935:376:408:421:548:767:892:928:936 -1:633:165:24:788:237:432:907:594:894:855:622:767:401:917:280:851:928:124:408:598:218:382:473:875:99:454:208:371:445:558:636:842:864:890:933:103:172:197:264:442:551:94:159:184:221:262:443:448:662:722:774:826:880:927 -1:18:2:3:17:5:14:16:8:10:15:19:4:1:9:12:13:7 -1:1044:1182:1418:1453:1301:1454:881:1463:1315:1300:362:820:875:882:1307:1423:1437:1414:1435:1447:467:1411:1433:233:758:1403:1250:1316:1436:1402:1438:153:205:675:96:638:649:1460:69:178:261:335:377:551:651:1186:1419:1449:1452:1465 -1:20:234:152:43:395:364:557:375:65:194:143:124:66:78:67:70:230:237:236:289:99:270:435:274:36:116:283:0:203:326:343:438:556 -1:119:188:292:91:298:149:182:225:95:55:202:193:21:56:264:34:58:162:11:87:51:127:259:99:145:153:293:43:117:83:102:140:159:244:2:74:93:128:129:166:213:223:296 -1:445:237:633:264:941:835:208:454:864:931:68:191:280:370:159:193:348:551:797:184:207:218:722:826:380:501:591:592:851:927:429:497:594:709:71:226:565:669:686:873:875:382:431:432:455:636:788:24:97:145:359:401:430:467:473:699:703:759:767:810:846:907 -1:348:454:123:408:759:855:207:208:423:722:184:380:875:551:826:264:633:941:443:445:810:907:159:193:198:234:591:659:788:851:24:237:432:835:103:420:686:894:280:382:473:594:669:86:266:401:558:587:611:636:662:767:864:77:95:218:229:455:595:610:641:683:703:708:917:920:929 -1:594:907:280:207:759:401:237:24:633:264:103:157:667:842:788:855:123:864:234:686:432:551:851:381:722:826:202:208:565:873:880:894:382:408:703:74:159:233:699:817:221:370:659:917:941:68:420:928:936:184:443:455:615:875:933:127:256:346:359:445:454:464:652:709:887 -1:633:237:788:165:894:594:454:864:907:703:280:123:880:208:659:767:207:759:810:826:855:935:264:370:382:221:443:851:941:24:184:218:234:401:432:473:574:592:797:931:160:193:198:204:381:423:478:558:662:699:815:842:875 -1:3:2:14:17:5:18:8:16:10:15:4:1:12:9:6:11:13:19 -1:1044:875:1182:1454:881:1411:1418:1301:1463:1435:1300:820:670:1433:882:1453:1307:414:1423:1315:1414:1465:1436:69:233:913:1429:1434:1438:1455:223:467:758:905:1410:1462:180:228:230:361:362:392:954:990:1047:1070:1242:1250:1278:1306:1409:1439 -1:20:152:375:234:395:78:43:67:194:230:70:65:435:364:557:124:0:99:236:143:274:75:179:66:237:289:37:386:389 -1:119:188:182:292:91:149:225:11:193:264:298:51:202:74:87:56:57:255:95:127:187:293:58:80:84:189:211:265:267:276:277:2:23:55:117:130:134:279:285:289:302 -1:264:633:941:68:237:445:420:551:835:931:159:380:207:810:894:454:497:191:280:410:851:348:759:928:123:788:74:193:208:455:864:875:103:198:309:359:429:558:686:797:873:917:229:234:430:709:826:855:927:12:24:172:184:197:247:370:427:432:447:475:499:669:699:733:790:827 -1:348:123:454:851:264:759:445:594:207:382:636:551:941:266:722:432:633:855:686:826:880:184:8:875:208:827:928:159:443:697:846:85:401:430:615:193:280:907:15:77:103:218:233:420:423:894:86:191:224:478:797:24:68:188:381:473:662:681:864:871:922:927 -1:237:633:207:401:280:851:855:662:454:826:24:907:159:594:722:788:759:824:842:382:123:659:432:894:208:565:699:873:551:864:880:933:103:218:229:428:936:127:234:381:467:797:941:68:264:380:443:475:767:835:875:892:21:74:151:184:222:348:359:427:430:473:636:645:667:686:810:813:827:947 -1:633:237:594:788:907:855:432:864:165:851:894:278:454:221:703:722:430:622:826:68:193:218:824:427:810:159:659:303:304:382:686:99:103:226:264:269:348:380:873:880:933:254:401:443:669:747:797:801:935:947 -1:17:3:2:18:14:5:10:1:8:16:12:19:9:4:7:13:6:15 -1:820:1418:1301:1454:881:1463:875:882:1044:758:1182:1435:1453:1411:1433:1307:1278:1316:877:233:1315:1437:878:1442:246:1135:1300:1422:1455:290:1246:1447:227:334:364:377:494:643:1102:1292:1319:1403:1409:134:148:177:373:388:414:433:467:536:833:916:1343:1402:1429:1460:1461:1462 -1:234:78:20:43:152:364:395:66:194:65:230:289:67:557:270:435:375:143:70:237:75:124:0:556:561:37:115:326 -1:188:202:182:119:292:149:225:91:264:298:11:117:87:189:56:193:145:25:21:95:127:255:51:296:54:162:234:30:34:102:136:159:252:35:150:213:244:246:290:295:300:36:57:58:72:178:270:276:277 -1:633:551:445:797:835:237:68:873:280:615:810:191:207:71:497:380:429:636:894:123:226:432:607:686:880:233:420:430:759:934:159:208:221:285:303:558:617:851:875:941:69:74:184:198:410:413:616:708:722:933:189:218:229:234:249:262:359:379:433:501:611:698:709:864:907:909:927:931:936 -1:759:123:722:851:184:348:432:659:941:408:633:420:636:826:207:454:551:864:855:159:280:686:122:894:24:157:875:221:193:237:234:238:262:264:589:594:810:934:48:68:208:610:615:788:797:86:113:367:412:645:907:11:127:151:165:217:218:233:285:309:443:565:587:699:742:824:873:936 -1:633:759:855:659:280:880:24:432:184:207:851:875:907:382:686:864:824:894:208:123:842:788:454:615:827:237:662:348:722:159:262:264:401:565:10:210:445:591:594:810:941:193:303:550:756:826:103:229:420:703:124:164:168:233:370:413:428:431:485:497:636:710:753:878:912 -1:633:788:907:767:855:797:165:810:894:238:123:262:454:659:851:880:237:892:432:207:221:280:636:824:159:370:380:827:908:24:208:303:622:727:864:936:122:160:218:264:348:367:382:401:420:423:565:594:686:812:842:872:184:193:353:376:473:551:662:722:724:759:817:931 -1:18:3:2:17:5:8:14:16:15:10:1:4:19:6:13:9:11:7
tree_sizes=790 797 665 883 767 824 820 728 740 899 663 824 917 743 699 863 696 850 835 744 891 723 970 870 687 747 881 932 793 877 652 882 755 720 821

Tree=0
num_leaves=4
num_cat=3
split_feature=29 72 65
split_gain=22.98 16.2168 7.00409
threshold=0 1 2
decision_type=9 9 9
left_child=-1 -2 -3
right_child=1 2 -4
leaf_value=0.017875567947497326 0.0091750798901710992 -0.0011219255586627313 -0.019992526464886612
leaf_weight=27.249949648976326 26.74995057284832 28.999946415424347 65.249879434704781
leaf_count=109 107 116 261
internal_value=-0.002943 -0.00882891 -0.0145898
internal_weight=148.25 121 94.2498
internal_count=593 484 377
cat_boundaries=0 28 73 86
cat_threshold=0 0 0 0 536870912 0 0 0 16777472 0 0 0 0 65536 0 0 0 128 0 33554432 0 16384 0 0 0 0 0 1 0 0 0 0 0 0 0 0 0 0 0 1024 0 0 0 0 0 0 0 0 0 0 0 0 0 0 0 0 0 0 0 0 0 0 0 0 1073741824 0 0 0 137363456 8 0 0 32768 0 0 66 0 16777216 0 0 64 0 0 0 0 2048
is_linear=0
shrinkage=1


Tree=1
num_leaves=5
num_cat=4
split_feature=24 71 79 95
split_gain=18.1614 9.11158 3.35681 2.57329
threshold=0 1 2 3
decision_type=9 9 9 9
left_child=2 -2 -1 -3
right_child=1 3 -4 -5
leaf_value=-0.0011462470289923933 -0.0061426939292780662 0.021664613000334253 -0.018937709747026774 0.0041845792217085056
leaf_weight=25.748607948422432 26.248180389404297 25.99856048822403 33.247956573963165 34.997433021664619
leaf_count=103 105 104 133 140
internal_value=-0.000782718 0.00766656 -0.0124643 0.0136373
internal_weight=146.241 87.2442 58.9966 60.996
internal_count=585 349 236 244
cat_boundaries=0 45 46 47 48
cat_threshold=0 0 0 0 0 0 0 0 0 0 0 0 0 0 0 0 0 0 0 0 0 0 0 0 0 0 0 133120 0 0 0 0 1048576 0 0 0 1073741824 0 0 0 137363456 8 0 0 134250496 344080 49188 32812
is_linear=0
shrinkage=0.03


Tree=2
num_leaves=4
num_cat=3
split_feature=76 95 39
split_gain=18.3937 16.0032 6.82956
threshold=0 1 2
decision_type=9 9 9
left_child=-1 2 -2
right_child=1 -3 -4
leaf_value=0.019268212203489461 0.01373179209314297 -0.01527936399259117 -0.0039282690642852029
leaf_weight=26.997694835066795 31.496602073311806 56.242379784584045 34.495284035801888
leaf_count=108 126 225 138
internal_value=0.000641761 -0.00466678 0.00519836
internal_weight=149.232 122.234 65.9919
internal_count=597 489 264
cat_boundaries=0 30 31 32
cat_threshold=0 0 0 134217728 0 0 0 0 0 0 268435456 0 0 0 0 0 0 0 0 0 0 0 262144 0 0 67108864 0 0 0 8192 368652 393222
is_linear=0
shrinkage=0.03


Tree=3
num_leaves=5
num_cat=4
split_feature=72 33 25 39
split_gain=18.1722 10.4474 3.21001 2.50248
threshold=0 1 2 3
decision_type=9 9 9 9
left_child=3 -2 -3 -1
right_child=1 2 -4 -5
leaf_value=0.021602719667030802 0.0074533058171458739 -0.021442503753651455 -0.0038683641573411262 0.0028254195502262209
leaf_weight=25.494559019804001 27.492970928549767 25.492699101567268 37.742855906486511 26.2453333735466
leaf_count=102 110 102 151 105
internal_value=0.00142414 -0.00661474 -0.0129137 0.0140782
internal_weight=142.468 90.7285 63.2356 51.7399
internal_count=570 363 253 207
cat_boundaries=0 45 63 75 76
cat_threshold=0 0 0 0 0 0 0 0 0 0 0 1024 0 0 0 0 0 0 0 0 0 0 0 0 0 1048576 0 2048 0 0 0 0 1048576 0 0 0 1073741824 0 0 0 3145728 8 0 0 32768 0 0 16384 0 0 0 0 64 0 0 0 8392704 2048 0 0 0 0 8192 1048576 0 0 0 16809984 0 4 1024 0 0 0 8388608 393220
is_linear=0
shrinkage=0.03


Tree=4
num_leaves=5
num_cat=4
split_feature=25 65 71 31
split_gain=16.7968 10.4169 3.73413 3.65378
threshold=0 1 2 3
decision_type=9 9 9 9
left_child=2 -2 -1 -3
right_child=1 3 -4 -5
leaf_value=0.01852302391883592 0.0067308557108237965 -0.002799462639523759 0.0006810202265060541 -0.021650190804458899
leaf_weight=29.989181011915207 26.490750193595886 30.489904224872589 26.493986710906029 32.737640202045441
leaf_count=120 106 122 106 131
internal_value=-0.000187689 -0.00795254 0.0115153 -0.0141836
internal_weight=146.201 89.7183 56.4832 63.2275
internal_count=585 359 226 253
cat_boundaries=0 18 36 37 38
cat_threshold=0 2048 16390 0 0 0 4 8192 0 0 0 4096 2048 0 0 0 0 8192 0 0 66 0 0 0 0 1088 0 2 0 0 2048 0 0 0 0 8192 409604 213040
is_linear=0
shrinkage=0.03


Tree=5
num_leaves=5
num_cat=4
split_feature=24 47 81 15
split_gain=19.5194 10.3356 9.8658 8.50826
threshold=0 1 2 3
decision_type=9 9 9 9
left_child=-1 -2 -3 -4
right_child=1 2 3 -5
leaf_value=-0.020209736480533255 0.017959845064195502 0.010689951175881051 0.0043176455410646021 -0.016845683931466231
leaf_weight=27.730138808488846 26.738333389163017 31.487287446856499 27.740588754415512 31.987821489572525
leaf_count=111 107 126 111 128
internal_value=-0.00139732 0.00436836 -0.000996545 -0.00780691
internal_weight=145.684 117.954 91.2157 59.7284
internal_count=583 472 365 239
cat_boundaries=0 45 46 60 61
cat_threshold=0 0 0 0 0 0 0 0 0 0 0 0 0 0 0 0 0 0 0 0 0 0 0 0 0 0 0 0 0 0 0 0 0 0 0 0 1073741824 0 0 0 3145728 8 0 0 134217728 655632 0 0 10 0 16777216 0 4 1024 0 0 0 0 0 524288 181508
is_linear=0
shrinkage=0.03


Tree=6
num_leaves=5
num_cat=4
split_feature=76 58 73 23
split_gain=17.0059 11.4189 12.9872 0.639604
threshold=0 1 2 3
decision_type=9 9 9 9
left_child=-1 -2 -3 -4
right_child=1 2 3 -5
leaf_value=0.018540789881369656 0.0099956358873003262 0.0065894778291706469 -0.025063995893829114 -0.0067714838831335515
leaf_weight=26.978948622941971 27.733655333518982 26.983843997120857 25.981881707906723 33.733869791030884
leaf_count=108 111 108 104 135
internal_value=0.000767275 -0.00463796 -0.00986859 -0.017184
internal_weight=141.412 114.433 86.6996 59.7158
internal_count=566 458 347 239
cat_boundaries=0 30 37 49 50
cat_threshold=0 0 0 134217728 0 0 0 0 0 0 268435456 0 0 0 0 0 0 0 0 0 0 0 262144 0 0 67108864 0 0 0 8192 0 0 0 0 256 272629760 1024 0 2048 0 0 32768 0 0 1088 0 0 0 8388608 262188
is_linear=0
shrinkage=0.03


Tree=7
num_leaves=4
num_cat=3
split_feature=51 25 33
split_gain=17.6526 12.1244 8.89522
threshold=0 1 2
decision_type=9 9 9
left_child=-1 -2 -3
right_child=1 2 -4
leaf_value=0.01725404223154893 -0.015079337726479854 -0.0090980794533962496 0.010672423970266817
leaf_weight=30.47498807311058 52.952008232474327 24.979900568723679 42.474209755659103
leaf_count=122 212 100 170
internal_value=-6.05798e-05 -0.00542534 0.00312155
internal_weight=150.881 120.406 67.4541
internal_count=604 482 270
cat_boundaries=0 28 36 50
cat_threshold=0 0 0 0 0 16777216 0 0 256 0 0 268435456 0 0 0 0 0 128 0 33554432 0 0 0 0 0 0 0 2048 1048576 0 74 0 16809984 0 0 1024 0 2048 0 0 16777216 0 0 1024 0 0 0 0 2048 524288
is_linear=0
shrinkage=0.03


Tree=8
num_leaves=5
num_cat=4
split_feature=25 10 95 31
split_gain=17.0219 7.21838 6.95135 0.220263
threshold=0 1 2 3
decision_type=9 9 9 9
left_child=2 -2 -1 -3
right_child=1 3 -4 -5
leaf_value=0.001694009990579246 -0.0031345028614509114 0.0047042064591687775 -0.019279172504610566 0.02027500651125904
leaf_weight=28.221836775541306 28.220491170883179 26.478944703936577 27.207401633262634 35.722672119736671
leaf_count=113 113 106 109 143
internal_value=0.00223687 0.00974715 -0.00997382 0.0152162
internal_weight=145.851 90.4221 55.4292 62.2016
internal_count=584 362 222 249
cat_boundaries=0 12 18 19 20
cat_threshold=1048576 0 64 0 16809984 0 0 1024 0 0 0 8388608 0 0 134217728 0 0 272629760 344076 360736
is_linear=0
shrinkage=0.03


Tree=9
num_leaves=5
num_cat=4
split_feature=75 24 58 23
split_gain=20.9568 14.2421 12.452 3.56114
threshold=0 1 2 3
decision_type=9 9 9 9
left_child=-1 -2 -3 -4
right_child=1 2 3 -5
leaf_value=0.019894077802084208 -0.0217599531166799 -0.013147534196741676 -0.0014512110242691739 0.012895114154650925
leaf_weight=26.95722196996212 26.698350712656975 29.968993499875069 27.47288852930069 38.719681188464165
leaf_count=108 107 120 110 155
internal_value=-9.98115e-05 -0.00564642 0.000455636 0.00753177
internal_weight=149.817 122.86 96.1616 66.1926
internal_count=600 492 385 265
cat_boundaries=0 30 72 82 83
cat_threshold=0 0 16 0 0 16777216 0 0 0 0 268435456 262144 0 0 0 0 0 0 0 0 0 0 0 0 0 0 8 0 0 8200 0 0 0 0 0 0 0 0 0 0 0 1024 0 0 0 0 0 0 0 0 0 0 0 0 0 0 0 0 0 0 0 0 0 0 0 0 1073741824 0 0 0 3145728 8 0 33554432 2147483648 8388608 2097152 536870912 2 0 0 16 673056
is_linear=0
shrinkage=0.03


Tree=10
num_leaves=4
num_cat=3
split_feature=25 74 31
split_gain=14.3247 6.5017 4.62591
threshold=0 1 2
decision_type=9 9 9
left_child=2 -2 -1
right_child=1 -3 -4
leaf_value=-0.017271153068604984 -0.0040446326927519012 0.013859061068371802 -0.00042978160003752874
leaf_weight=30.440271481871605 25.229231745004654 52.92183730006218 34.687698349356651
leaf_count=122 101 212 139
internal_value=8.30004e-05 0.00827611 -0.00955245
internal_weight=143.279 78.1511 65.128
internal_count=574 313 261
cat_boundaries=0 12 18 19
cat_threshold=1048576 0 72 268435456 16809984 0 0 1088 0 0 0 8388608 2097152 0 0 8388608 2097152 268435456 278540
is_linear=0
shrinkage=0.03


Tree=11
num_leaves=5
num_cat=4
split_feature=64 95 95 81
split_gain=17.4944 13.6245 4.27094 4.15646
threshold=0 1 2 3
decision_type=9 9 9 9
left_child=3 -2 -3 -1
right_child=1 2 -4 -5
leaf_value=0.00089647430616494504 0.009360193133140151 -0.0012060741768928367 -0.020267137819629449 0.020356980506994093
leaf_weight=25.461455062031746 27.209525719285011 26.958077028393745 38.407674580812454 31.699054226279259
leaf_count=102 109 108 154 127
internal_value=0.00135763 -0.00660365 -0.0136091 0.0131127
internal_weight=149.736 92.5753 65.3658 57.1605
internal_count=600 371 262 229
cat_boundaries=0 46 47 48 60
cat_threshold=0 0 0 0 0 0 0 512 0 0 0 0 0 0 0 0 0 0 0 0 0 0 0 0 0 0 0 0 0 0 0 0 1048576 0 0 0 0 0 0 0 2097152 0 0 0 33554440 8404992 9228 360450 1048576 0 16392 0 0 0 4 0 0 0 0 8388608
is_linear=0
shrinkage=0.03


Tree=12
num_leaves=5
num_cat=4
split_feature=4 72 25 95
split_gain=14.266 14.0859 10.4063 0.392367
threshold=0 1 2 3
decision_type=9 9 9 9
left_child=-1 -2 -3 -4
right_child=1 2 3 -5
leaf_value=0.014797754462244073 0.010764672183393649 0.0048529563057364711 -0.0049542045216114921 -0.022281728610366695
leaf_weight=29.194766104221344 27.431993737816811 25.725328043103218 25.715325191617012 42.381945207715034
leaf_count=117 110 103 103 170
internal_value=-0.0012482 -0.00584958 -0.0112762 -0.0172106
internal_weight=150.449 121.255 93.8226 68.0973
internal_count=603 486 376 273
cat_boundaries=0 30 75 88 89
cat_threshold=0 0 0 134217728 0 16777216 0 0 0 0 0 1073741824 0 0 0 0 0 0 0 0 0 0 262144 0 0 0 8404992 0 0 8192 0 0 0 0 0 0 0 0 0 0 0 0 0 0 0 0 0 0 0 0 0 0 0 0 0 1048576 0 0 0 0 0 0 0 0 0 0 1073741824 0 0 0 137363456 8 0 0 32768 0 2048 4 268435456 0 0 0 8256 0 0 0 0 2048 278532
is_linear=0
shrinkage=0.03


Tree=13
num_leaves=4
num_cat=3
split_feature=27 61 71
split_gain=19.0584 10.4068 6.77483
threshold=0 1 2
decision_type=9 9 9
left_child=-1 -2 -3
right_child=1 2 -4
leaf_value=-0.019126377111516067 -0.0089919139708706103 -0.0013711801782498824 0.015944691552283455
leaf_weight=25.892554014921188 26.939362704753876 34.431896269321442 60.378888428211212
leaf_count=104 108 138 242
internal_value=0.000288504 0.00553388 0.0101253
internal_weight=147.643 121.75 94.8108
internal_count=592 488 380
cat_boundaries=0 30 58 59
cat_threshold=0 0 16 0 0 0 0 0 0 0 268435456 262144 0 0 0 0 0 128 0 0 0 0 0 0 0 0 8 0 0 8200 0 0 0 0 0 0 65536 0 16777216 0 0 0 16777216 0 0 0 0 0 262144 33554432 0 0 262144 0 0 0 0 65537 312336
is_linear=0
shrinkage=0.03


Tree=14
num_leaves=4
num_cat=3
split_feature=77 17 47
split_gain=15.3606 11.5445 9.25442
threshold=0 1 2
decision_type=9 9 9
left_child=-1 -2 -3
right_child=1 2 -4
leaf_value=-0.016285318331228552 -0.0098280514036900753 -0.0029408989833796875 0.017637877861032072
leaf_weight=30.654621079564095 27.19688293337822 31.412891328334808 52.107915863394737
leaf_count=123 109 126 209
internal_value=-0.000381868 0.00503727 0.0104112
internal_weight=141.372 110.718 83.5208
internal_count=567 444 335
cat_boundaries=0 28 41 42
cat_threshold=0 0 0 0 536870912 0 0 0 16777216 0 0 0 0 65536 0 0 0 128 262144 33554432 0 16384 0 0 0 0 0 1 0 0 74 0 0 0 4 64 0 0 0 8388608 2048 33836
is_linear=0
shrinkage=0.03


Tree=15
num_leaves=5
num_cat=4
split_feature=24 73 7 18
split_gain=14.6745 12.3458 3.48568 2.72555
threshold=0 1 2 3
decision_type=9 9 9 9
left_child=-1 3 -3 -2
right_child=1 2 -4 -5
leaf_value=-0.0164090633529285 0.002186918360861807 -0.011541730547422928 0.0019230424193489115 0.0201619983383481
leaf_weight=29.346097528934479 25.931765213608742 26.197898879647255 33.935404494404793 31.417190551757812
leaf_count=118 104 105 136 126
internal_value=-0.000444711 0.00455229 -0.00475233 0.0135657
internal_weight=146.828 117.482 60.1333 57.349
internal_count=589 471 241 230
cat_boundaries=0 45 63 64 74
cat_threshold=0 0 0 0 0 0 0 0 0 0 0 0 0 0 0 0 0 0 0 0 0 0 0 0 0 0 0 0 0 0 0 0 0 0 0 0 1073741824 0 0 0 3145728 8 0 0 134250496 1048576 0 66 0 16809984 0 0 1024 0 0 0 8388608 0 0 0 0 0 8192 16654 0 0 0 8388608 0 268435456 0 0 0 16
is_linear=0
shrinkage=0.03


Tree=16
num_leaves=4
num_cat=3
split_feature=27 73 23
split_gain=16.8299 16.9048 5.51315
threshold=0 1 2
decision_type=9 9 9
left_child=-1 -2 -3
right_child=1 2 -4
leaf_value=-0.016484653257632379 0.017001615180532555 -0.013115089180321478 0.0038169043775955537
leaf_weight=28.334721058607101 55.072324872016907 27.170714020729065 29.43282912671566
leaf_count=114 221 109 118
internal_value=0.000981455 0.00632294 -0.00505958
internal_weight=140.011 111.676 56.6035
internal_count=562 448 227
cat_boundaries=0 30 42 43
cat_threshold=0 0 0 0 0 0 0 0 256 0 268435456 262144 0 0 0 0 0 128 0 0 0 0 0 0 0 0 8 0 0 8200 1048576 0 74 0 16809984 0 0 1024 0 0 0 8388608 131116
is_linear=0
shrinkage=0.03


Tree=17
num_leaves=5
num_cat=4
split_feature=27 73 22 15
split_gain=16.6489 12.8946 5.90056 1.47316
threshold=0 1 2 3
decision_type=9 9 9 9
left_child=-1 3 -3 -2
right_child=1 2 -4 -5
leaf_value=-0.017880746153923828 0.021927303023723858 0.0064086525728489002 -0.0097632847119707 0.003997793374778286
leaf_weight=26.089362978935242 26.875720113515854 25.925397098064423 42.362464383244514 26.926446259021759
leaf_count=105 108 104 170 108
internal_value=0.000201839 0.00511176 -0.00358927 0.0149871
internal_weight=148.179 122.09 68.2879 53.8022
internal_count=595 490 274 216
cat_boundaries=0 30 42 67 68
cat_threshold=0 0 0 0 0 0 0 0 256 0 268435456 0 0 0 0 0 0 128 0 0 0 0 0 0 0 0 8 0 0 8200 1048576 0 72 268435456 16809984 0 0 1024 0 0 0 8388608 0 0 0 0 0 32 0 0 0 0 0 0 0 0 0 0 0 0 0 33554432 0 0 0 0 1048576 442368
is_linear=0
shrinkage=0.03


Tree=18
num_leaves=5
num_cat=4
split_feature=75 71 65 65
split_gain=15.6486 15.7461 7.36183 3.74041
threshold=0 1 2 3
decision_type=9 9 9 9
left_child=-1 2 -2 -3
right_child=1 3 -4 -5
leaf_value=0.017532871321479324 -0.0059577486364209495 -0.0017350451372165399 0.012558780059227021 -0.021870362196617303
leaf_weight=27.352074816823006 26.381832510232925 24.885198384523392 39.879670321941376 33.115775868296623
leaf_count=110 106 100 160 133
internal_value=0.000402851 -0.00442276 0.00537196 -0.0147569
internal_weight=151.615 124.262 66.2615 58.001
internal_count=609 499 266 233
cat_boundaries=0 30 31 49 62
cat_threshold=0 0 0 0 0 0 0 0 256 0 268435456 262144 0 0 0 0 0 128 0 0 0 0 0 0 0 0 8 0 0 8200 131374 1048576 0 0 0 0 0 4 1024 0 2 0 0 16777216 0 0 0 0 8192 0 0 8 0 16777216 0 0 0 0 0 0 4096 2048
is_linear=0
shrinkage=0.03


Tree=19
num_leaves=5
num_cat=4
split_feature=27 95 71 63
split_gain=13.6212 13.9013 7.72645 3.94203
threshold=0 1 2 3
decision_type=9 9 9 9
left_child=-1 -2 -3 -4
right_child=1 2 3 -5
leaf_value=-0.01618418173065057 -0.011982590662238064 0.019740215853849146 -0.0057482593449999127 0.0079726318226736419
leaf_weight=26.05802695453167 26.105149462819099 36.83878518640995 26.424738004803658 30.397380813956261
leaf_count=105 105 148 106 122
internal_value=0.000144691 0.00465969 0.0100067 0.00168649
internal_weight=145.824 119.766 93.6609 56.8221
internal_count=586 481 376 228
cat_boundaries=0 30 31 32 33
cat_threshold=0 0 16 0 0 0 0 0 0 0 268435456 0 0 0 0 0 0 128 0 0 0 0 0 0 0 0 8 1 0 8200 655632 262180 50444
is_linear=0
shrinkage=0.03


Tree=20
num_leaves=5
num_cat=4
split_feature=24 32 55 23
split_gain=13.3398 10.0646 5.07212 0.789378
threshold=0 1 2 3
decision_type=9 9 9 9
left_child=-1 -2 -3 -4
right_child=1 2 3 -5
leaf_value=-0.014851424647911006 -0.0086272301033286317 -0.0012079160472781467 0.0048147964222128052 0.021035407713987719
leaf_weight=26.485813662409782 26.624425873160362 28.647225081920624 29.132781758904457 33.123102694749832
leaf_count=107 107 115 117 133
internal_value=0.00132635 0.00574683 0.0103946 0.0151618
internal_weight=144.013 117.528 90.9031 62.2559
internal_count=579 472 365 250
cat_boundaries=0 45 90 91 92
cat_threshold=0 0 0 0 0 0 0 0 0 0 0 0 0 0 0 0 0 0 0 0 0 0 0 0 0 0 0 0 0 0 0 0 0 0 0 0 1073741824 0 0 0 3145728 8 0 0 134217728 0 0 0 0 0 0 0 0 0 0 0 0 0 0 0 0 0 0 0 0 0 0 0 0 0 0 0 0 0 0 0 0 0 0 0 0 1073741824 0 0 0 1048576 0 0 0 134218760 98600 98348
is_linear=0
shrinkage=0.03


Tree=21
num_leaves=4
num_cat=3
split_feature=24 47 58
split_gain=16.5829 9.72895 8.33391
threshold=0 1 2
decision_type=9 9 9
left_child=-1 2 -2
right_child=1 -3 -4
leaf_value=-0.015429674577542421 0.010454602514185231 0.016298604377807675 -0.0079764607506863892
leaf_weight=31.663624197244644 26.428970500826836 43.990254238247871 46.317221447825432
leaf_count=128 106 177 186
internal_value=0.00113711 0.00640387 -0.000826161
internal_weight=148.4 116.736 72.7462
internal_count=597 469 292
cat_boundaries=0 45 46 56
cat_threshold=0 0 0 0 0 0 0 0 0 0 0 0 0 0 0 0 0 0 0 0 0 0 0 0 0 0 0 0 0 0 0 0 0 0 0 0 1073741824 0 0 0 3145728 8 0 0 134250496 361516 0 0 134217728 0 0 268435456 1024 0 0 1040
is_linear=0
shrinkage=0.03


Tree=22
num_leaves=5
num_cat=4
split_feature=72 13 57 65
split_gain=15.9061 12.8925 6.43621 3.14923
threshold=0 1 2 3
decision_type=9 9 9 9
left_child=-1 -2 -3 -4
right_child=1 2 3 -5
leaf_value=0.015601097638498337 0.0099528259300839701 0.0023844819982140747 -0.0025466988273640245 -0.022189621823429609
leaf_weight=27.815865755081177 26.094650149345398 25.094755262136459 25.12639057636261 44.427010849118233
leaf_count=112 105 101 101 179
internal_value=-0.00177893 -0.00653378 -0.0115959 -0.0163057
internal_weight=148.559 120.743 94.6482 69.5534
internal_count=598 486 381 280
cat_boundaries=0 45 73 91 104
cat_threshold=0 0 0 0 0 0 0 0 0 0 0 0 0 0 0 0 0 0 0 0 0 0 0 0 0 1048576 0 2048 0 0 0 0 0 0 0 0 1073741824 0 0 0 2097152 0 0 0 134250496 0 0 0 0 0 0 65536 0 0 0 0 1073741824 16777216 65536 64 0 0 2097152 262144 0 0 0 262144 0 0 0 0 65536 0 0 16388 0 0 0 0 1024 0 0 0 0 2052 0 0 0 0 8192 0 0 8 0 16777216 0 4 1024 0 0 0 0 16777216
is_linear=0
shrinkage=0.03


Tree=23
num_leaves=5
num_cat=4
split_feature=28 51 58 47
split_gain=15.5759 13.2471 9.15226 8.69075
threshold=0 1 2 3
decision_type=9 9 9 9
left_child=-1 -2 -3 -4
right_child=1 2 3 -5
leaf_value=-0.015503992888528205 0.021385880572962632 0.012269348315558983 -0.015552424807243408 0.0046826239536139277
leaf_weight=29.658103302121162 27.078593701124191 25.613897949457169 32.32280570268631 31.827556550502777
leaf_count=120 109 103 130 128
internal_value=0.00104231 0.00605125 -0.000254602 -0.00623543
internal_weight=146.501 116.843 89.7643 64.1504
internal_count=590 470 361 258
cat_boundaries=0 30 58 68 69
cat_threshold=0 0 0 134217728 0 0 0 0 0 0 268435456 268435456 0 0 0 0 0 0 0 0 0 0 262144 0 0 67108864 0 0 0 8192 0 0 16 0 0 16777216 0 8192 0 0 0 0 0 0 0 0 0 128 0 33554432 0 0 0 0 0 0 0 2048 0 0 0 0 0 272629760 1024 0 0 16 262188
is_linear=0
shrinkage=0.03


Tree=24
num_leaves=4
num_cat=3
split_feature=16 47 95
split_gain=14.8388 11.259 5.3443
threshold=0 1 2
decision_type=9 9 9
left_child=-1 2 -2
right_child=1 -3 -4
leaf_value=-0.015635507964447144 0.005875896716037653 0.015468160341347091 -0.0091959770647805274
leaf_weight=28.032750204205513 30.61748006939888 49.351065799593925 36.675234690308571
leaf_count=113 123 199 148
internal_value=0.000918118 0.00574439 -0.00246544
internal_weight=144.677 116.644 67.2927
internal_count=583 470 271
cat_boundaries=0 46 47 48
cat_threshold=0 0 0 0 0 0 0 512 0 0 0 0 0 0 0 0 0 0 0 0 0 0 0 0 0 0 0 0 0 0 0 0 1048576 0 0 0 0 0 0 0 0 0 0 0 33554432 8404992 361486 278536
is_linear=0
shrinkage=0.03


Tree=25
num_leaves=5
num_cat=4
split_feature=75 95 47 79
split_gain=16.052 11.59 3.84324 0.595413
threshold=0 1 2 3
decision_type=9 9 9 9
left_child=-1 2 -2 -3
right_child=1 3 -4 -5
leaf_value=0.016223059690077601 -0.0046659699721007634 -0.02170365720462528 0.0089796465779734026 -0.0053322368856327847
leaf_weight=27.983605399727821 25.902018919587135 25.417990759015083 33.779399335384369 30.763095647096634
leaf_count=113 104 103 136 124
internal_value=-0.00100275 -0.00604193 0.00323768 -0.0148994
internal_weight=143.846 115.863 59.6814 56.1811
internal_count=580 467 240 227
cat_boundaries=0 30 31 32 33
cat_threshold=0 0 16 0 0 0 0 0 256 0 0 262144 0 0 0 0 0 128 0 0 0 0 0 0 0 0 8 0 0 8200 361484 278536 147496
is_linear=0
shrinkage=0.03


Tree=26
num_leaves=5
num_cat=4
split_feature=3 24 34 15
split_gain=14.5258 10.808 8.97344 2.04007
threshold=0 1 2 3
decision_type=9 9 9 9
left_child=-1 -2 -3 -4
right_child=1 2 3 -5
leaf_value=-0.016457846777595202 -0.010212502291295635 -0.0045660042510588259 0.002970058591139837 0.020213292427039009
leaf_weight=25.748066678643227 24.738199040293694 28.05506207048893 25.850336641073227 44.357249766588211
leaf_count=104 100 113 104 179
internal_value=0.000594 0.00508789 0.00952736 0.0150262
internal_weight=148.749 123.001 98.2626 70.2076
internal_count=600 496 396 283
cat_boundaries=0 20 66 76 77
cat_threshold=0 0 16 0 0 0 0 0 256 0 0 268435456 0 0 0 0 0 128 0 33554432 0 0 0 0 0 0 0 0 0 0 0 1024 0 0 0 0 0 0 0 0 0 0 0 0 0 0 0 2048 0 0 0 0 0 0 0 0 1073741824 0 0 0 134217728 8 0 0 32768 8388608 2048 0 134217728 0 2097152 0 1024 0 256 16 540710
is_linear=0
shrinkage=0.03


Tree=27
num_leaves=5
num_cat=4
split_feature=51 92 65 49
split_gain=17.5287 12.3647 4.40235 0.31668
threshold=0 1 2 3
decision_type=9 9 9 9
left_child=-1 -2 -3 -4
right_child=1 2 3 -5
leaf_value=0.017585271041158625 0.0098925422867145434 0.00095700626463933697 -0.0044746687031804629 -0.01981597829455926
leaf_weight=27.972964733839035 27.693078562617302 26.566964492201805 26.240471184253693 38.963294625282288
leaf_count=113 112 107 106 157
internal_value=-0.000385112 -0.0055965 -0.0107833 -0.015058
internal_weight=147.437 119.464 91.7707 65.2038
internal_count=595 482 370 263
cat_boundaries=0 28 58 72 85
cat_threshold=0 0 16 0 0 16777216 0 1024 0 0 0 268435456 0 536870912 0 0 0 128 0 0 0 0 0 0 0 0 0 2048 0 0 0 67108864 0 0 0 0 0 0 0 0 0 16 0 0 0 0 0 268435456 524288 0 262144 8388608 0 0 0 0 0 8192 0 0 74 0 0 0 0 64 0 0 0 8388608 2048 524288 1048576 2048 0 0 16777216 0 0 0 0 0 0 8388608 2048
is_linear=0
shrinkage=0.03


Tree=28
num_leaves=5
num_cat=4
split_feature=75 71 25 31
split_gain=12.6102 11.7733 9.16794 0.350934
threshold=0 1 2 3
decision_type=9 9 9 9
left_child=-1 -2 -3 -4
right_child=1 2 3 -5
leaf_value=0.01486541089735686 0.010243079562705511 0.0047077816109170499 -0.022607155467883853 -0.0061871260978728108
leaf_weight=29.36249515414238 27.798969686031342 26.314028903841972 28.44985194504261 32.954890921711922
leaf_count=119 112 106 115 133
internal_value=5.70604e-05 -0.00459595 -0.00986556 -0.0158954
internal_weight=144.88 115.518 87.7188 61.4047
internal_count=585 466 354 248
cat_boundaries=0 30 31 49 50
cat_threshold=0 0 16 0 0 0 0 0 0 0 268435456 0 0 0 0 0 0 128 0 33554432 0 0 0 0 0 0 8 0 0 8200 525602 0 2048 6 0 0 0 4 64 0 0 0 0 2048 0 0 0 0 8192 393228
is_linear=0
shrinkage=0.03


Tree=29
num_leaves=5
num_cat=4
split_feature=51 85 25 31
split_gain=14.4255 9.68742 4.22672 1.07904
threshold=0 1 2 3
decision_type=9 9 9 9
left_child=-1 -2 -3 -4
right_child=1 2 3 -5
leaf_value=0.014052330518087866 0.0080374020052981845 -0.019846174610181361 -0.0078380366666859318 0.0004714937389320132
leaf_weight=30.664405003190041 25.257439598441124 31.569752916693687 26.748143687844276 29.324216946959496
leaf_count=124 102 128 108 118
internal_value=-0.00166953 -0.00659982 -0.0112092 -0.00407874
internal_weight=143.564 112.9 87.6421 56.0724
internal_count=580 456 354 226
cat_boundaries=0 28 57 69 70
cat_threshold=0 0 16 0 0 16777216 0 0 16777216 0 0 0 0 16 0 0 0 128 0 33554432 0 0 0 0 0 0 0 2048 0 0 0 0 0 0 0 8192 0 0 0 0 131072 0 0 0 0 0 0 0 0 0 262144 0 0 67108864 524288 0 2048 1048576 0 0 0 16809984 0 0 1024 0 0 0 8388608 327692
is_linear=0
shrinkage=0.03


Tree=30
num_leaves=4
num_cat=3
split_feature=75 47 95
split_gain=14.4721 15.3038 10.6964
threshold=0 1 2
decision_type=9 9 9
left_child=-1 -2 -3
right_child=1 2 -4
leaf_value=0.015877761184542556 0.011919494086411807 0.0022466832991847527 -0.01911486430294292
leaf_weight=27.387657567858696 26.720484554767609 35.800626307725906 53.805488154292107
leaf_count=111 108 144 218
internal_value=-0.000594317 -0.00537531 -0.0112115
internal_weight=143.714 116.327 89.6061
internal_count=581 470 362
cat_boundaries=0 30 31 32
cat_threshold=0 0 16 0 0 0 0 0 256 0 268435456 0 0 0 0 0 0 128 0 0 0 0 0 0 0 0 8 0 0 8200 655632 360456
is_linear=0
shrinkage=0.03


Tree=31
num_leaves=5
num_cat=4
split_feature=64 25 9 95
split_gain=14.6407 8.97981 6.73247 1.88925
threshold=0 1 2 3
decision_type=9 9 9 9
left_child=-1 3 -3 -2
right_child=1 2 -4 -5
leaf_value=0.017636944157089392 -0.0016587056372573202 -0.0058092717222893685 0.012240564144693634 -0.016645296569275235
leaf_weight=28.68493627011776 25.231785297393799 27.010328337550163 32.655031785368919 31.465891242027283
leaf_count=116 102 109 132 128
internal_value=0.00165981 -0.00349416 0.00440848 -0.0112245
internal_weight=145.048 116.363 59.6654 56.6977
internal_count=587 471 241 230
cat_boundaries=0 46 58 71 72
cat_threshold=0 0 0 0 0 0 0 512 0 0 0 0 0 0 524288 0 0 0 0 0 0 0 0 0 0 0 0 0 0 0 0 0 1048576 0 0 0 0 0 0 0 0 0 0 0 33554440 8388608 1048576 0 72 268435456 16809984 0 0 1088 0 0 0 8388608 1048576 2048 16384 268435456 0 0 0 0 0 0 0 0 2048 262158
is_linear=0
shrinkage=0.03


Tree=32
num_leaves=4
num_cat=3
split_feature=58 24 73
split_gain=14.2022 11.0588 5.10319
threshold=0 1 2
decision_type=9 9 9
left_child=-1 -2 -3
right_child=1 2 -4
leaf_value=-0.015522691318817344 -0.0090436606521134832 -0.0014830644875907073 0.015065236711961182
leaf_weight=24.904561936855316 26.932669907808304 27.04117825627327 68.989414289593697
leaf_count=101 110 109 279
internal_value=0.00175319 0.00602462 0.010705
internal_weight=147.868 122.963 96.0306
internal_count=599 498 388
cat_boundaries=0 7 48 66
cat_threshold=0 33554432 2155872256 2147483648 2097152 0 2 0 0 0 0 0 0 0 0 0 0 0 0 0 0 0 0 0 0 0 0 0 0 0 0 0 0 0 133120 0 0 0 0 0 0 0 0 1073741824 0 0 0 3145728 0 2048 16396 0 0 0 0 0 0 0 0 0 2048 0 0 0 0 8192
is_linear=0
shrinkage=0.03


Tree=33
num_leaves=5
num_cat=4
split_feature=25 47 63 95
split_gain=11.8465 5.34632 3.80809 0.330357
threshold=0 1 2 3
decision_type=9 9 9 9
left_child=2 -2 -1 -3
right_child=1 3 -4 -5
leaf_value=-0.01520493555911683 -0.0025214006379576329 0.018984776573191559 0.00033219805052119716 0.0045798610210639277
leaf_weight=29.527225613594055 29.98955725133419 25.316699013113976 30.849448695778847 29.194456145167351
leaf_count=120 121 103 125 118
internal_value=0.00111623 0.00792751 -0.00834707 0.0131758
internal_weight=144.877 84.5007 60.3767 54.5112
internal_count=587 342 245 221
cat_boundaries=0 12 13 14 15
cat_threshold=1048576 0 72 0 16809984 0 0 1088 0 0 0 8388608 98316 425992 131116
is_linear=0
shrinkage=0.03


Tree=34
num_leaves=4
num_cat=3
split_feature=29 72 65
split_gain=14.0764 8.63508 6.09423
threshold=0 1 2
decision_type=9 9 9
left_child=-1 -2 -3
right_child=1 2 -4
leaf_value=0.016508840682641419 0.0083232884340459917 0.0012567335191254003 -0.014785031716601477
leaf_weight=24.845672100782394 26.764114454388618 36.652175545692444 58.720457449555397
leaf_count=101 109 148 238
internal_value=-0.000518054 -0.00492979 -0.0090859
internal_weight=146.982 122.137 95.3726
internal_count=596 495 386
cat_boundaries=0 28 73 91
cat_threshold=0 0 0 0 0 0 0 0 16777216 0 0 0 0 65536 0 0 0 128 0 33554432 0 16384 0 0 0 0 1024 1 0 0 0 0 0 0 0 0 0 0 0 1024 0 0 0 0 0 0 0 0 0 0 0 0 0 0 0 2048 0 0 0 0 0 0 0 0 1073741824 0 0 0 137363456 0 0 0 32768 0 0 64 0 16777216 0 4 64 0 0 0 8388608 2048 0 0 0 0 8192
is_linear=0
shrinkage=0.03


end of trees

feature_importances:
Column_95=12
Column_25=10
Column_24=8
Column_47=8
Column_65=7
Column_71=6
Column_31=5
Column_58=5
Column_72=5
Column_73=5
Column_75=5
Column_23=4
Column_27=4
Column_51=4
Column_15=3
Column_29=2
Column_33=2
Column_39=2
Column_63=2
Column_64=2
Column_76=2
Column_79=2
Column_81=2
Column_3=1
Column_4=1
Column_7=1
Column_9=1
Column_10=1
Column_13=1
Column_16=1
Column_17=1
Column_18=1
Column_22=1
Column_28=1
Column_32=1
Column_34=1
Column_49=1
Column_55=1
Column_57=1
Column_61=1
Column_74=1
Column_77=1
Column_85=1
Column_92=1

parameters:
[boosting: gbdt]
[objective: binary]
[metric: binary_logloss]
[tree_learner: serial]
[device_type: cpu]
[data_sample_strategy: bagging]
[data: ]
[valid: ]
[num_iterations: 2000]
[learning_rate: 0.03]
[num_leaves: 63]
[num_threads: 0]
[seed: 0]
[deterministic: 0]
[force_col_wise: 0]
[force_row_wise: 0]
[histogram_pool_size: -1]
[max_depth: -1]
[min_data_in_leaf: 20]
[min_sum_hessian_in_leaf: 0.001]
[bagging_fraction: 0.8]
[pos_bagging_fraction: 1]
[neg_bagging_fraction: 1]
[bagging_freq: 1]
[bagging_seed: 3]
[bagging_by_query: 0]
[feature_fraction: 0.8]
[feature_fraction_bynode: 1]
[feature_fraction_seed: 2]
[extra_trees: 0]
[extra_seed: 6]
[early_stopping_round: 0]
[early_stopping_min_delta: 0]
[first_metric_only: 0]
[max_delta_step: 0]
[lambda_l1: 0]
[lambda_l2: 0]
[linear_lambda: 0]
[min_gain_to_split: 0]
[drop_rate: 0.1]
[max_drop: 50]
[skip_drop: 0.5]
[xgboost_dart_mode: 0]
[uniform_drop: 0]
[drop_seed: 4]
[top_rate: 0.2]
[other_rate: 0.1]
[min_data_per_group: 100]
[max_cat_threshold: 32]
[cat_l2: 10]
[cat_smooth: 10]
[max_cat_to_onehot: 4]
[top_k: 20]
[monotone_constraints: ]
[monotone_constraints_method: basic]
[monotone_penalty: 0]
[feature_contri: ]
[forcedsplits_filename: ]
[refit_decay_rate: 0.9]
[cegb_tradeoff: 1]
[cegb_penalty_split: 0]
[cegb_penalty_feature_lazy: ]
[cegb_penalty_feature_coupled: ]
[path_smooth: 0]
[interaction_constraints: ]
[verbosity: -1]
[saved_feature_importance_type: 0]
[use_quantized_grad: 0]
[num_grad_quant_bins: 4]
[quant_train_renew_leaf: 0]
[stochastic_rounding: 1]
[linear_tree: 0]
[max_bin: 255]
[max_bin_by_feature: ]
[min_data_in_bin: 3]
[bin_construct_sample_cnt: 200000]
[data_random_seed: 1]
[is_enable_sparse: 1]
[enable_bundle: 1]
[use_missing: 1]
[zero_as_missing: 0]
[feature_pre_filter: 1]
[pre_partition: 0]
[two_round: 0]
[header: 0]
[label_column: ]
[weight_column: ]
[group_column: ]
[ignore_column: ]
[categorical_feature: 0,1,2,3,4,5,6,7,8,9,10,11,12,13,14,15,16,17,18,19,20,21,22,23,24,25,26,27,28,29,30,31,32,33,34,35,36,37,38,39,40,41,42,43,44,45,46,47,48,49,50,51,52,53,54,55,56,57,58,59,60,61,62,63,64,65,66,67,68,69,70,71,72,73,74,75,76,77,78,79,80,81,82,83,84,85,86,87,88,89,90,91,92,93,94,95]
[forcedbins_filename: ]
[precise_float_parser: 0]
[parser_config_file: ]
[objective_seed: 5]
[num_class: 1]
[is_unbalance: 0]
[scale_pos_weight: 1]
[sigmoid: 1]
[boost_from_average: 1]
[reg_sqrt: 0]
[alpha: 0.9]
[fair_c: 1]
[poisson_max_delta_step: 0.7]
[tweedie_variance_power: 1.5]
[lambdarank_truncation_level: 30]
[lambdarank_norm: 1]
[label_gain: ]
[lambdarank_position_bias_regularization: 0]
[eval_at: ]
[multi_error_top_k: 1]
[auc_mu_weights: ]
[num_machines: 1]
[local_listen_port: 12400]
[time_out: 120]
[machine_list_filename: ]
[machines: ]
[gpu_platform_id: -1]
[gpu_device_id: -1]
[gpu_use_dp: 0]
[num_gpu: 1]

end of parameters

pandas_categorical:null
